-0.13232224733022874
0.299871642032802
0.10209481946305093
0.19915547913852893
0.27813344666770795
0.005172015013724054
-0.21396810191782584
0.0393090830078986
0.08033919482686444
0.085773622557988
0.07573428105409669
0.16950107284756397
-0.12283837227170746
0.010904710019319289
0.013735902491834727
-0.0643617114817516
0.051669499149668945
0.0896649485291785
0.2816134683415436
-0.09121018648056828
0.17373590946071582
-0.203134407507408
-0.2322359357331035
-0.1582013432765416
0.12413871962787641
-0.18126581410023584
0.1325810414017468
0.05728885171370524
0.2120686488288406
0.0742505924984436
-0.14088540030054397
0.15786815232097895
0.09918903874782521
-0.17829474149262692
0.017150281251771284
0.06338270351189441
0.0876765845317298
0.29719554546990845
0.15393305024133025
-0.10023936192026293
-0.28475257357343486
0.08227605789202273
0.16506384201921687
-0.11542242216537636
-0.04087830548674073
-0.027386632767359097
-0.05657256207665354
-0.011646785021221826
-0.27214427191190704
0.05805834436184418
0.01808775561001278
-0.22991548793272146
-0.11748927317315883
-0.11229989147275016
0.13892313207253665
0.04170430249174505
0.02757006495521039
-0.040769710253675415
-0.14997055912563945
-0.2000416272531209
-0.16520126693201137
-0.17015648340627249
0.014834744109349292
0.08759830888147543
0.08340533968244067
0.1402647677697256
-0.2557907021864831
-0.06925198096253078
0.07634313758691023
0.08035679214264572
-0.09530232139479118
-0.08857277845673275
0.23883525039490328
-0.08613904279679763
0.32361633571265125
0.2598033549315421
-0.2199896138337337
-0.05916257870775263
-0.12498260914288638
-0.08354497740727396
-0.035180307358809226
0.006774028989418487
0.008413052536758418
-0.08535107572424926
0.05981869873250071
0.002093765404730567
0.0012133674138088218
-0.013417098350595442
-0.20723985040799398
0.01736108085149146
0.10933102513814176
0.17824605407873423
0.027383926607360824
0.1830421427506284
0.14591345455260313
0.20632191123598254
-0.19839828026214168
0.18354501653313302
0.048207145847781054
-0.10270360222709589
0.3575938574545783
-0.0517177688439479
-0.005671972813317132
-0.11268734877701334
0.22401299891447093
0.11898487425505193
-0.12889887935635155
-0.16255654592941718
0.03848856828652748
-0.03759219078183334
0.18976311883101488
0.11566170481355284
0.2533020622354557
-0.10450605904665318
0.06354251402030714
-0.12647064098058497
0.10972424039845867
-0.19608106218647273
0.0963406901641617
0.21727229614424448
0.14918129796042268
-0.04524470791479414
0.05832370147775133
-0.1039672614795442
0.13673701961614265
0.007342810673881489
-0.020734750207160608
0.06857063988588151
0.056545980413254586
0.01780860397048962
0.03503092865939976
0.17439429008780774
0.06396750701458105
0.058371183838207295
-0.228942534256061
0.2810545506818015
0.24978985972261897
0.01346319769360212
0.09068764901567325
0.1624802532487713
0.281329477540142
-0.05827930628843222
-0.11753459164623944
0.1297829935272991
0.047103470123896075
0.10833074471098596
-0.13298778352305488
0.05514692222286263
0.18257360372648337
0.11016206500584427
-0.24166831031026725
-0.01538509979725165
0.14678736353309396
0.059410077771271524
0.06230448174952825
-0.025374670687820552
0.04269378751543077
0.0449315704272422
-0.060502840821384844
-0.22785611376192577
-0.16925183181419723
0.13319337665091638
-0.22355030981161725
0.22987953229106547
0.1132916198598068
0.004541195000369495
0.17066598653193085
0.046090469072979826
0.018323811900775665
-0.21576334168683123
-0.07504814412183834
0.09178990041626098
-0.0063799653365305626
-0.12585908973293536
-0.14477549725896185
-0.016353883240608696
-0.0717963538435948
-0.23165839659621718
-0.1501357001011249
0.1799450210564598
0.1309505555088654
0.32449841793321543
-0.020225766480205163
-0.025156584294389318
-0.10732597745739722
-0.05786510694396286
-0.2820887552388068
0.15056684435178053
-0.07683804524742219
0.2294659362418726
-0.045676198887144345
0.14896686556072983
-0.19937342678939612
-0.048641702308224746
-0.12884683311919792
0.21322172338196932
-0.031753477488777826
0.2019507901184294
-0.060400629793693934
-0.2565156049968196
-0.2616909078433214
0.27305533732665077
-0.07204744622422676
-0.10983226315930393
-0.12077903043506363
0.20378570862975665
-0.21194948785365042
0.040457953749671885
-0.2943122197990757
0.026330093574236126
0.05519222920357078
-0.20114089944713143
-0.2447788483629201
-0.04767619199714641
-0.04574030139355829
-0.19202857468842804
0.12622093955672364
-0.059649187404239565
-0.19531711025601098
-0.13881334880535978
0.19256767577043463
-0.2504446641344131
-0.09151759145371524
-0.15164289822860175
-0.0059668065596581825
-0.17737265684699166
-0.13983624270723985
0.003062171151791361
0.2925226852465803
0.348445406816288
0.06555334583638303
-0.01341254477938375
-0.11551527876096504
-0.13045710556553536
-0.18575187219294872
-0.10054715213060998
0.18705970698514046
-0.06809937255435215
0.04890449403506231
-0.1072748151998339
0.04359841054497759
0.1787153825395583
-0.10342793537471637
-0.09151495232485773
0.1474643070673077
-0.20137653527584823
-0.21577053254298456
0.18615868542906333
0.18351362361165954
-0.39022260961179756
-0.05859359255431094
-0.27798716879122665
0.01780638437995736
0.018336644553782144
-0.14977348337607652
-0.008016098465016
0.1908022553264663
-0.17525837118406568
0.06893307876863908
0.11206098906118216
-0.03202297034012184
-0.09294325511242028
0.27768996890802006
0.22579325674561496
-0.1614984245902461
-0.20504833308025117
0.2682559986160769
-0.08007039987626524
0.09156180666661602
0.12806196541588016
0.25223060383579904
0.056455207562710816
0.10047217994367126
-0.03368974738230916
0.18968428966022377
-0.04006080788550144
0.1425198067354515
-0.26591104481830524
-0.08917764300837516
0.168161947214632
-0.22022440142893612
-0.04050862998905363
0.17864757505218531
-0.04032855951288256
0.033054812390398036
0.03813564417044948
-0.16396334901881576
0.22072216351156093
0.3082808325462952
0.1440299193400896
-0.06559696527109558
0.16448239086760008
-0.05347939078284801
0.0714925697382412
-0.0068159915383618624
0.17701649518627427
-0.04015062349433939
0.029971679484131493
0.3254131710828283
-0.2348167993150975
0.0624130190831674
0.05238655531492959
0.12046093203214285
-0.0640101623332567
-0.019778184946436583
-0.09306836527199532
0.206407599739568
-0.1333147532048894
-0.20437899209808336
-0.07054178316755004
-0.24510130104013392
-0.1976519078653809
-0.023276842875902856
0.1967460952318854
-0.04904140538037168
0.21551192955892867
0.06227156039132853
-0.2521248926492226
-0.2727636981547395
0.18084809369271312
-0.07127183655773843
0.060250048361268065
-0.14779089715061275
0.35677452541852617
-0.22882852566881653
0.09910723483238947
0.15889694717674052
-0.2672040816469329
-0.2494640660078832
0.20262255805784457
-0.14499591571572004
0.27871380731896106
-0.020260566825213027
0.010346001942231703
0.24530573947516934
0.10018556608458565
0.09681992249480428
0.06480170961002225
0.09307647016679059
-0.03984731554407126
-0.17778012331053078
-0.19540784849575124
0.23635114628557383
0.08010224154890207
0.023194049086789893
-0.16649119287149275
0.1470249027305383
0.12849199263365926
-0.16517668456631673
0.14200675521289172
-0.05928839438866397
0.1539526434513629
-0.16693929129607327
0.3456645805366693
0.01351669375115696
-0.09798790913894122
-0.1404668775029306
0.056833667250058076
-0.12641185425339116
-0.299029215226883
0.24599206450339842
0.011548399564825505
0.21551319277990216
0.07121408239039903
-0.038168578850740924
-0.07875491279329024
-0.2541871804944885
-0.09791367131789062
-0.14550941307015644
-0.05887964479289517
0.15257624516645665
0.06501439057544499
-0.06970020801473949
-0.024298860041555192
0.10945406846702811
0.1524944779489737
0.07620240135983355
-0.15011142880653833
0.1854254881739358
0.023230510023671797
0.10243392469280468
-0.049267415322312644
0.10199485745470446
0.008751721539801433
-0.3517814579543553
-0.06072660678764171
-0.24876517684498353
0.05392900396972838
0.010489007820263978
0.05296012000333636
0.019642262672533408
-0.12672641260885692
-0.21716577777609433
0.13291178446824958
0.275944790258844
0.025305455612474395
-0.15720915853305112
-0.25245017016363114
0.1985440550983338
0.09617013623259556
-0.0993907922643364
-0.21158963274974013
0.06053343148698622
0.01158312638297299
-0.01830083515420632
-0.06958139643408139
0.042895405045861
0.09477822684722081
-0.14561223381764932
0.06201825723786198
-0.14886945970294835
0.016841479453437787
0.20073013868732573
-0.16732549373176084
0.137259452311154
0.12856773929264817
-0.28212492197673517
-0.13967301204898633
0.0021383384602916473
-0.10545127796556117
0.0340851521573729
-0.32233792172038606
-0.26944870225791273
0.03357134702744711
0.15003085185949366
0.08726510011245392
-0.20774363360494136
-0.011237242564373357
0.05547785595811021
-0.1289056560920652
-0.18229387119391188
-0.058869081351362984
0.08139396591721966
0.07398443490806707
-0.04202952360130276
-0.014102886232259675
-0.11765098014074869
-0.03805599529018515
0.024127178796125626
0.13088640307907118
-0.13543193337752238
-0.07929870799604974
0.1605853040345262
0.07607647960902703
0.074392221497389
0.16673687626972838
-0.20737069838500533
0.17402316743405308
-0.12946723281946784
-0.15622099683003182
0.1646308294652591
0.12311638319260498
0.02110230670972622
0.28828336048854825
-0.23000399494079707
0.1562935470821451
0.14245924944359745
-0.04595721801887857
0.20372597943556653
-0.08775786499878473
-0.15671827678320208
0.18840609437064815
-0.22310977046480782
-0.023371221329747897
-0.05423782185383233
0.11640420586170272
0.04194239655239915
0.05324161434342433
-0.08391552020832452
0.2638061632186052
-0.1778269215704424
-0.3487820967301309
-0.0994563948356775
-0.0702057565530908
0.025131662862109078
-0.14767751603477366
0.0207942140030561
-0.1153060398102227
0.020248294306683096
-0.0364256293665613
0.24027230849412032
-0.1281016505038426
-0.15814455227744034
0.20421161925979173
-0.005915450545833462
-0.020426358726477228
0.06298525240715845
-0.2538523609636336
-0.0045999742493113005
-0.04504887237001381
-0.01757851635888477
0.11541406571486278
0.12462709683477387
-0.1222239267295446
-0.21420815548633998
0.12333775300813639
0.17334136946043027
0.029446599983199213
-0.18627345960046066
0.15217088283930205
-0.008194507554571203
0.025957293226368847
0.05804463597784383
0.096417034970684
0.0867768300377999
-0.04715791444197089
0.03720082966025434
0.05763469679967846
0.2323914480783965
0.0022104364092778365
0.049332351644785645
0.04381272544868501
0.20306098934926398
7.753000089286483E-4
0.28667345682027107
-0.26451896539810965
-0.11828968931690505
0.13373020156796678
0.050476555946176505
-0.1572376495494865
0.10566023217481052
-0.05455907085912624
-0.1681091128813853
-0.150357203359946
-0.1997655122220482
-0.15741437329676738
-0.019867674760713737
0.018498451151575848
-0.18081972532507706
-0.0535947503159048
-0.29574673209422503
0.21171431366877808
-6.761465367850512E-4
-0.10452392404452482
0.2227402641321897
-0.1877084276085534
0.20748216433101735
-0.04631385754977577
0.05744490034246403
-0.22302108121773181
-0.14354393838467047
0.22177844336914035
0.15384846316576817
0.02107471492469326
0.1292479972176549
0.04927160861227498
-0.2597709607656011
0.12041154001468982
0.044800136314029626
0.21283034541367615
0.004447389526606647
-0.05903562521919012
-0.03313931690314255
-0.22494867524679615
-0.24453665690946105
-0.20589546746706486
0.07746063553427425
-0.0420134069977203
-0.1186340438656974
0.14871257241721106
-0.09898693453680438
-0.024119428504337775
0.0704370164741927
0.008846912905536011
0.12071791113677736
-0.12666874730000405
-0.22524420224337927
0.23540246380264657
-0.005249268981850205
0.2321923929124253
-0.14732874069660523
0.16759945007876084
-0.025180860969877317
0.15422633237808908
-0.263020693680642
0.0630149556626189
-0.26952726610522915
-0.03813174044333583
0.04983205740180351
-0.15536511070200393
0.16654807728317647
0.2672174213999669
0.11198374813704043
-0.15677419851745386
0.15361198433869058
0.17775044856957578
0.25332473729337923
-0.05874120146713978
-0.15337481354175242
-0.054634301373893364
0.16361942965970724
0.10750968769277221
-0.25137612216631844
-0.1505432783343479
0.2086273610701981
0.2551316724001171
-0.18831480746437004
-0.39345347183307844
0.01166344565000512
-0.11280887046206774
-0.23176781413784248
-0.20691436791835083
0.1947445665105315
-0.16256512778286014
-0.03031000849666522
-0.042814670641865143
0.22786902883203078
0.13432166589286437
-0.0036635198308117042
0.22968002731702328
0.027846705421382005
0.20336283327912857
-0.2314718385246748
-0.19167718013974983
0.2707709207058413
-0.17730888042207604
-0.13062659573160726
-0.12372319519474678
-0.14569892633071818
0.0904263954767729
-0.21542101940458006
0.07881436121791696
0.072729544771123
-0.08993037170806842
0.06995615601253703
0.01541968684058562
-0.1494732284473647
-0.1766704484206028
-0.12639987742700942
-0.11398180150305963
-0.14581136814161902
-0.1681211700557822
-0.1777049544434645
-0.0375455190990738
0.043894879788358036
0.02322511850114295
-0.11462698541798966
-0.13250520492051546
0.02829864721539514
-0.05386096107679144
-0.15648098512895317
0.08659964190888159
-0.0115765234344069
0.23504213714337796
-0.07968862086718
-0.004755271138391801
-0.07474777687830424
-0.07203769507287598
-0.14265694220159258
-0.16213359799250215
-0.14410936538206245
-0.21736020629420766
-0.10283391158504741
-0.05971798014385384
0.21308431398446911
0.11561003029867614
0.20760238166237807
-0.004639630347567231
-0.24147150153209065
-0.15430528143887784
-0.07821200379584076
0.17779151664632473
-0.09440784264779355
-0.09619749315135204
0.239703511731066
0.0040168605736512816
0.31686956162656477
0.07091089282723471
-0.20264465900654605
-0.13471144250074837
-0.14487429626711962
-0.10848000306953082
0.0036090588855665247
-0.22434210103931226
0.19125721029678902
0.1597382778289728
-0.08792083744760988
0.020941541825401873
-0.1795737137194572
0.17742475404926072
0.1562661444300098
0.037033331862845645
0.23431079108009864
0.08518969306222975
-0.15016436249391812
0.10486481238795735
-0.003246613783502394
-0.25125679162564724
0.21194860766541393
-0.1759993193065416
0.10294047610904922
-0.012964736750378363
-0.03099338217359795
-0.009401380905901197
-0.13929788842257973
0.1021921501754596
0.17442927315943976
0.22001914717266208
0.19523027111759336
-0.04027646493902249
0.03827900013482215
-0.13211904256879278
-0.25913339318310996
0.02322437788980727
0.11047733418021498
0.34180787970103205
0.17538454773125642
-0.1731657916649975
-0.11524897994276079
0.10672519268188985
0.16337455071409154
-0.09591809922433658
0.06650757888439693
-0.1834320237612024
-0.2573684552046287
0.025016630332076267
-0.19960922576713966
0.04070707968581954
-0.18303255021302348
-0.2617643690724656
0.20146085561396204
-0.06946649074574357
0.0075570386042488995
0.17345446234988507
-0.08586545724731746
-0.05909012387966349
-0.002357254864323997
-0.002603357298846686
0.060331852605217486
0.19688886566096284
0.2597510048180366
0.15006681410054712
0.11836927844553402
-0.11898372702950251
0.015699912046452952
-0.13501483343419315
0.24678050991033884
0.12603449270955996
-0.22240944269170596
0.1412111347378961
0.07017857450284244
0.10590501029195878
0.13653225642496047
0.061910549141177634
-0.11341064395882335
-0.061279416627177216
0.08397078317384842
0.1027738701772495
-0.10047186919723175
-0.10001614508402953
0.2015100897721009
0.05827965269390003
0.22118798489240432
-0.1426213030430635
0.16120394732016752
0.23442417137623628
0.179459460861768
0.026438982836335025
-0.09060189322056975
0.01619514733235005
0.18162074101221465
-0.08361233270542871
-0.11199909836374018
0.16260705049522617
0.21021425570662183
-0.18969454808291192
0.24853040555442463
-0.11218856331988374
0.06146500498594695
0.2818489920258787
0.2320797572921571
-0.18894840304885407
-0.03204939763344215
-0.10601127667434229
0.1127717678010547
-0.17561149487581934
0.18293903227083266
0.05836689548750714
0.03441868613173036
0.14458191709378726
-0.21704945782595886
0.10293982755319524
0.1390289996086047
0.2992340131195549
0.23082237202507785
-0.17477902314668714
-0.20356950168160873
-0.26494137094841536
-0.1246076667810746
0.1637731210999417
0.06834499195090174
0.10404814049278202
-0.09824834367291735
0.04033205878115316
-0.2762977699850789
0.08808617565609006
0.1708270304940169
0.09195729789568656
-0.1222537981549815
-0.11813366305291767
-0.2130456635967361
-0.10051866084735078
0.24963145990366215
-0.18736068231673758
0.03352182797491824
-0.16938715137203655
-0.2195546277551953
-0.038522284979216365
0.08016073306258456
0.2656587212770752
0.27044149331596046
0.24175397806479856
-0.057350930773756
-0.09448033506301266
-0.019329943830905253
-0.18814126154636338
0.2478933790387938
0.07324623581002021
0.18477892475512186
0.012108423203076354
0.22502450685741968
0.09050811103327373
-0.04891541384550438
-0.018688657160119346
-0.16340938989332332
0.009735531801169477
0.13666205571925547
0.21854201897239975
-0.03624883357912939
0.03445085765030018
-0.28612962750506094
0.2911012971824796
0.2734961895511482
0.1654066784696739
-0.013092011223577678
-0.10713877365077258
0.1461215564883362
-0.13263024831049786
-0.09377177913110173
0.08290457272605406
0.03501997107577912
0.07920374060254282
-0.1341088493668401
-0.24545419312307093
-0.1496205562658083
-0.18984159340528717
0.17246690329827935
-0.042002965844783656
-0.027323040719822046
-0.23027261821469552
-0.23766498301802808
0.11439850432565096
-0.06241722372799689
-0.17013839131040734
-0.20660120889041597
-0.0941466047940681
-0.2589507263353798
-0.1514417529349737
-0.17012359248601536
-0.08433566243384803
-0.13192340384089382
-0.1579292515453424
0.2927103813804936
0.05633943690336684
0.026798562928443178
-0.002522992603531254
-0.1409270391600013
0.15494017269593122
0.194143058943658
-0.048302840880427994
-0.22076064469317458
0.27612244734379576
0.11711886324146807
0.0707383672392051
0.011450306650493163
-0.10010109123420968
-0.2575475177778915
0.020296446408573206
-0.09552772336938518
0.20071640297262994
0.06985982428320668
0.023392930282851394
-0.19773091005857257
0.0360565403500804
0.07087172967945583
-0.21369922241932807
0.006205148872956055
-0.19971511032637834
0.09788383431898527
-0.17527548143200944
-0.046515800131388604
-0.11889688687163179
0.17088521388178163
0.12504412556566014
0.08885923095044475
-0.010215144154274701
-0.17519430024027638
-0.11268031274854327
0.14467158055051194
-0.03566339568460624
0.09057014203109208
0.1764754156010792
0.17573672404243842
-0.08309621100619095
-0.09238554505061855
0.019220330180335064
-0.23133333744805426
-0.055373284742782226
-0.027348385418206216
-0.05607569377336829
0.08948934424472119
-0.15289206557127305
-0.17276665281394685
-0.14028735375974416
0.0010826085516665372
0.26279372191802264
-0.01018588605697064
0.017934539864311965
-0.11011418090796875
-0.08107300682078193
-0.15115508276430037
-0.1974141170781669
0.20734212197804539
0.01147036440052537
0.03905708557966347
0.19252739070265593
-0.25918948541954057
0.17006080616931715
0.12642717204110906
0.21833806333853892
-0.0361015903465072
-0.12587489338347665
-0.26987854650298027
-0.0807474051521321
-0.1925314772983451
-0.3358524262674591
0.28562833881019983
0.009973426320534587
0.24295035978622603
-0.07099644940403388
-0.03379622976516
0.19848575555806183
0.23321542666370626
0.04479298846744334
0.001986547523408749
0.11497463279127515
0.1685129022508025
-0.22213945605640248
-0.08127328195215938
0.04918983105874293
0.007378666652895079
0.27379261700284324
-0.0011082027900256397
0.14814282617550828
0.22517240965494728
-0.02102889721932373
-0.2885377268558172
0.3199694054442304
-0.26575381328116904
0.11968438064324412
0.048893275968353314
0.17566182579230982
-0.05938227651651952
-0.11996223684087928
0.11964071138346621
0.06216381575992461
0.17504169048699253
0.10688594657803603
-0.2433848643911911
-0.08371086098959492
0.13050388756017675
-0.1542839654600988
-0.2370663443791717
-0.12754471541643414
-0.13868392510397476
-0.18257772275643291
-0.04516037203773715
-0.061145646167422
-0.09306111638997551
0.04508651708161622
0.049833145769827815
0.0754370714319617
-0.1993991033186802
0.09049598049076357
-0.032452886009553705
-0.013612415045107922
0.08080100316319658
0.15535530287848262
-0.1144348870787257
0.0809203729647529
-0.24887896506788232
-0.050284518730185426
-0.20264441853865564
-0.3616654149183819
0.2804272814530519
0.027918590515617344
-0.021664969934368672
-0.09167892392688899
-0.1709942597337386
-0.17203092246507232
-0.013085932565711837
-0.02327337507211441
-0.23476481416709932
0.13566634350968482
-0.14823003939445836
0.3503637297362049
0.20894953479622558
-0.16340724179307078
0.11905444207105445
-0.11800971350833665
-0.13661358099669502
0.11098500076786302
0.018712828866142825
-0.2692154931941703
0.2548477464009892
-0.1326017040615172
0.08121461738781884
0.06761455804072304
-0.03526338690785923
-0.10106439793710638
0.13022962699277496
-0.03707913461188182
-0.20074803815497472
0.039752342296563895
0.0761382519308186
-0.14032973768710094
-0.28036697103166125
0.14330208716817042
-0.05757099947921342
-0.21815730598409003
-0.10461562033079184
-0.05195974074719747
0.18676579315425676
-0.23007470708720063
-0.04472288465451505
-0.2740610977942967
-0.10257183182621557
-0.020471782795785008
-0.08375218602742955
0.20013761078348036
0.0592839260620925
-0.17954322890835026
-0.14110006182758023
0.0992682162754546
0.16189423754035148
0.013321078368770993
0.13186017444572423
0.22100292379176129
-0.08852090949504163
-0.14796427880648366
-0.26239218116281227
-0.02419712223419051
0.09789974420948058
6.568750013962433E-4
0.1822416988141633
0.13628505627192242
-0.10844653072263376
0.11088121916595264
0.04627150109451129
0.14842612560153787
-0.254875219659887
0.021085362053721024
0.25451644437062887
-0.264843291301955
0.0814752644276814
-0.10698383623208475
0.03344726830606093
-0.24991911661387833
-0.06609214000354313
0.07207288025052663
0.17247985469390806
-0.2092103809953359
-0.17034435715028548
0.023880743881948326
-0.04765704688216713
0.05629315883815076
-0.202606460884108
0.06365034328575493
-0.21074600475826907
-0.09249227053599246
-0.08721750945417876
0.22591898242611141
-0.023091940347065847
0.08206751615180856
0.08789068306977134
0.006271964998762297
-0.2251341189546431
0.04606425623212421
-0.31406278851114316
-0.04154675907429538
0.07097380798027762
-0.14054687363827367
0.03114679775868835
-0.06852478262109156
0.0060282269543141176
-0.06763895157666938
-0.12478709021946487
0.2684720723651036
0.11806521990632814
0.10167259617590539
-0.30462227578081397
-0.042798916763372614
0.055826710480048294
0.038160054026550115
0.10615945896086731
-0.09103639292579785
0.14076664032593952
0.16979098803086193
0.12307785587068282
-0.1419831104404703
-0.15311191044866426
-0.1195626329875297
-0.2755391049004858
0.14306448517164075
-0.07866358312908679
-0.05509570956091131
0.2663566661637954
0.06152976654715463
-7.780360958011329E-4
0.22402347215847704
-0.011935038268776371
0.016913582833003853
-0.22564014430220852
-0.05032039934687382
0.11414577626593826
-0.1886277708670394
0.03874735621048127
0.2350096520814299
-0.04412594075906081
-0.11954724796724364
-0.24739832470736028
-0.1476698704189941
-0.21159066745469082
-0.036830595904520896
0.24000521183994766
-0.168980323437093
0.011443407612756815
-0.07888481010769896
0.023699489085880723
0.07731459583772479
0.17327746978268202
-0.008119886148803651
0.16743047659210003
-0.16447995705193522
0.29820945764103834
0.03996930424961107
0.11462980579313078
-0.21962062368564672
0.024516236295917083
-0.028754362035720602
-0.1616338292460015
0.25093609549753165
0.1721859713750722
0.23656194618846577
-0.013408219303306022
0.06173214715340257
0.0039009044711293375
0.026141905267146125
0.21970138153554286
0.18976610506897443
0.09964156852109217
-0.4749012765871552
0.06812282193052731
-0.032556710934125495
0.10566953250439569
0.22089710825376296
0.30105719270594417
0.03055249581657153
0.24043155565326305
0.08894443472559697
-0.23321584260385794
0.13402768453847919
-0.13644641409820352
-0.12511863738336282
-0.06755643135306878
-0.21431049180074274
0.09635183991718098
-0.2729937196834212
0.10923576668796331
-0.16361525506544214
0.17916450854500052
0.0025716111797119807
-0.1139608239391823
-0.018815484166718324
-0.19028490796596417
0.009751278814419041
-0.2562138870254937
-0.14557054441604797
-0.1736728668337228
-0.2647661763463898
0.048258776750241136
-0.0514930345390816
0.10741100495468493
0.19161153423179086
-0.1073983567887141
-0.22181239136240846
0.3281309138247201
0.1781887275737202
-0.037861858478127904
-0.09249007728081558
-0.24482326102428736
0.02948316686653203
0.31462173469913945
-0.042421143214017104
0.1760627320074494
-0.20086715753644477
-0.07357624002201381
0.19433356868919377
-0.06769886177850687
0.037911261651311014
-7.391416719020733E-4
0.25682732588691254
-0.25276997332342377
0.20669968115521636
0.2697931888611673
0.021559818153362057
0.12347731062436886
-0.004732106043204937
-0.2973479020985513
-0.19891773377045519
0.2270158179533754
0.01250227460513843
-0.3212430249775902
0.19056087697886914
0.07179225669795543
0.1933099635490649
-0.18419538820642262
-0.06975137923712399
0.08013712068790599
0.047082347077187225
0.2686582689563652
-0.1743935567371377
-0.27835996189844003
-0.08153938581759194
0.045166450248156534
0.37100789950985946
-0.26506959629248916
-0.18049232398716364
0.09906300340530412
-0.07531237520125257
0.03520915519901946
-0.16964624749436066
0.15026369054611188
0.05068079741027246
-0.07693925983193448
0.1420551225228166
-0.26235534025607943
-0.3025775829421426
0.058146433720485446
-0.29201368328580596
-0.2074329724768553
-0.1250122658458193
-0.14897866965417822
-0.006785880302143421
-0.14333322124507966
-0.011383752360447641
0.13258786023784233
0.09185221942810985
-0.10829451667267069
0.029258617253015803
-0.004458842703689676
0.08946536064848577
0.0750525380065569
-0.12756706677169577
0.1335224822002851
0.12450470866426191
-0.16673404802746225
0.09899152914342185
-0.30075743957543993
0.026284100899731606
0.1878996554655695
-0.09151529296575286
-0.15257010265793233
-0.07566104681401778
0.23690629333270327
0.2569990521171984
0.011447656544004132
0.1527863132563281
0.16833204163394166
-0.11629630528405545
-0.16984277368605974
-0.2859539363073895
-0.06714909708887778
0.19179346336055747
0.16869634457187338
0.1298161537838786
-0.026210239923055406
-0.021452837577521384
0.27834985402261037
-0.279408697230118
0.17977631208299172
-0.18028184074385853
-0.07540034492113706
-0.24924478426996943
-0.12637712027621759
-0.22447722774358042
-0.19283225741410037
-0.3263815674269895
-0.01260875219970664
0.3616109549330489
0.15558269778000994
-0.027620480943912402
-0.2189787881110379
-0.15394388610118648
-0.05409101054820331
0.2645834008461431
0.235591295127789
-0.07188655369407114
-0.17291446361485147
-0.09032584189356813
0.02755800086762244
-0.13492425748326234
-0.05756038329428964
0.07330320486742709
0.012844523970707074
-0.26685212608475845
-0.09735589845668952
-0.011101351662079633
-0.1582042503044761
0.1735941511080302
-0.01665162715351266
-0.16677647880188598
-0.004442190306851143
0.09946498318525164
0.1691800115554872
-0.07759829969539855
0.08936380459949564
0.20650556605909076
0.05525260305080563
0.2611452406510507
0.1458922193461994
-0.2769562724275489
0.17183073446890382
0.10436597315208945
0.25469874297727235
0.09876766384152277
-0.1302406463387823
-0.1203025850958077
0.1633135818117645
-0.004113045429905006
0.022110836471856275
-0.08508691591087958
0.18001507786940468
0.15775753036201765
-0.1634973294624513
0.0454308856835179
-0.1038909219034438
-0.0920746193323147
-0.27800708410921127
-0.1540173715741547
-0.1481128146770484
0.18586228798916518
-0.05700960357461701
-0.06369700357900218
-0.22019751779906763
-0.20612391901386715
-0.2969051884726346
-0.2067609270877708
0.013579340510256064
-0.1706344801666531
0.16368871914621053
0.04630388884833576
-0.13970439748764016
-0.15596262090707783
0.11018368744038959
0.24598425948108504
-0.18013940740330192
0.2449916855075595
0.14529833888318314
0.0036355702082252394
0.0015945166170248976
-0.018671730188444948
0.022723320483529527
-0.0315840991715272
0.05031345577604613
0.22748291764570958
-0.017968754006969494
0.1878279770439619
0.19095399717309422
0.15851307176337842
-0.17634949299168373
-0.020891128914674345
-0.02474425947212913
0.0573783184129414
-0.2976361470274758
-0.02875884270960864
0.08634080817015224
0.17113752759525214
-0.14419419325374838
0.049424948776257374
-0.1305911403605008
-0.07250079497099128
-0.28485597575177474
0.2642280275524879
-0.10421562552873832
0.08521731590027465
0.05139988404040629
-0.07167356315132632
-0.3014546881584996
-0.15768127018499534
0.14052209998764056
0.002644520362608079
-0.25328811010157387
0.15120213237378377
-0.2625136097005967
-0.3078831030559619
0.1187716009432054
7.743928251892639E-4
-0.18022199100937356
0.00856250191383792
0.1642909848749419
0.1119744882233813
-0.1249312218796949
-0.0881545882720016
-0.19365162986456336
0.029201213592489356
-0.22693504074743046
0.11900390870412142
-0.0467125505930559
-0.18675778438225343
-0.10456791822996586
0.027164707701047282
0.27350492885190103
-0.05045155047973861
-0.1397055868011436
-0.012164205963105884
0.036532639053244484
-0.11582966560305206
-0.053682828732677684
-0.039480236778025396
-0.1531960379789834
-0.1258712446240543
-0.20762247527045913
-0.1052253345165954
-0.1493281858848664
-0.1907776508250537
-0.10169935074791464
-0.12417765617601025
0.04179829641263209
-0.32134292541732534
0.11098781253591647
0.12943520969528122
-0.21189968631117173
0.10615548872368225
0.13756618057300615
0.14623952591339373
0.10511619690331651
-0.23501123795575266
-0.11253396570746699
0.09663026026657712
0.3088219006181031
0.2896027315854633
0.2484314008124633
0.1295184769184583
0.1227644083564829
-0.044683264714088566
-0.11859411187175285
-0.18128835044284175
0.2726286336141616
-0.04912665153999139
0.21630516967256339
0.276130957377909
-0.2310552376620842
0.028921429253471107
0.017230555441512693
0.19637739339012888
-0.03611298475713716
0.11085410273121364
0.1580688324883527
0.13749973830386839
-0.2129861664438447
0.052422752365515274
0.004341550057323964
-0.25377284147847257
-0.1755222586670386
0.2011638259602297
0.09411103704195287
-0.06155813016918168
0.14491289248665307
0.13647888660054064
0.18600066239753535
-0.0919992710177029
0.23829233578382555
-0.11195543517613232
-0.00319070311880739
-0.21743526506541497
-0.2010763300305475
-0.15526213876811235
-0.07353920610050715
0.2662791815613691
0.13108001365224253
-0.137744258418359
-0.24902804747366392
-0.15416977913511798
0.13334022423746783
0.12144893368845627
0.09045517260922273
-0.02439619798349039
0.10571562667909683
-0.1089511732587653
-0.021044714378547463
-0.06825738022813775
0.23801205317749094
0.0544371557758357
0.2044045175898321
-0.21116059151078484
0.23863199572438215
0.1869107925509174
0.26596937266854287
0.08240788340195179
0.17708567350492516
-0.3096547327491573
-0.09235538257379451
0.05127840070126025
-0.04091819561259925
0.32600467745486716
-0.09201697413426536
-0.13507119698366005
-0.10643340906432341
0.16337281693183622
-0.2138260294153045
-0.12606379527645709
0.17353848082444165
-0.08753201363656833
-0.29402928110145743
0.0830587774454263
-0.10277845706992876
-0.17952011366518736
-0.2663315209299979
-0.25026922296894955
0.06719015340290418
0.0936336419348456
-0.30086735348310667
0.32570263834264024
0.024894882264664048
0.11288128940505535
0.18939908927800705
0.08771863231034904
0.2883823394383121
0.08649376688915777
0.06018289310144699
0.1458348992327831
-0.12247273043847014
-0.12600140903793244
0.09060604745809904
-0.026359300967588057
0.15973293892574866
0.04494314933071573
-0.008100852937690906
-0.21096227907085566
-0.024433762127527157
0.19485338254368348
0.09919725840758419
-0.0842403291637236
-0.1909389474811984
0.12442175675082955
-0.027082851487623526
0.2085649222658717
-0.2620775338118133
0.017962432372538837
-0.18901983385075052
0.06462884167111624
-0.09055834878159376
0.006865393300951144
0.28884487817216487
-0.2733464945826281
-0.01051510338627284
0.03592430050230586
0.07482429653097711
-0.06128033472061238
-0.14800543212192485
0.009198256586748957
0.24823364067045034
-0.2051385886941566
-0.18793349761630904
-0.0998840416385456
0.02626123256740491
-0.0938782903701278
0.22039093836403612
0.18040086078188866
0.049958748129017995
-0.033323960131354496
0.19948600464681535
0.1939826725741282
-0.1133850879590595
-0.007204077466288872
